<?xml version="1.0"?>
<opencv_storage>
<!-- Created using Computer Vision System Toolbox(tm) for MATLAB(R) -->
<!-- Version 9.1.0.441655 (R2016b) -->
<!-- Compatible with OpenCV 2.4 -->
<cascade>
  <stageType>BOOST</stageType>
  <featureType>HOG</featureType>
  <height>32</height>
  <width>33</width>
  <stageParams>
    <boostType>GAB</boostType>
    <minHitRate>9.9500000476837158e-01</minHitRate>
    <maxFalseAlarm>1.0000000149011612e-01</maxFalseAlarm>
    <weightTrimRate>9.4999999999999996e-01</weightTrimRate>
    <maxDepth>1</maxDepth>
    <maxWeakCount>100</maxWeakCount></stageParams>
  <featureParams>
    <maxCatCount>0</maxCatCount>
    <featSize>36</featSize></featureParams>
  <stageNum>6</stageNum>
  <stages>
    <!-- stage 0 -->
    <_>
      <maxWeakCount>8</maxWeakCount>
      <stageThreshold>-1.1055365800857544e+00</stageThreshold>
      <weakClassifiers>
        <_>
          <internalNodes>
            0 -1 21 6.9256231188774109e-02</internalNodes>
          <leafValues>
            -8.8498401641845703e-01 7.1951222419738770e-01</leafValues></_>
        <_>
          <internalNodes>
            0 -1 6 4.5327268540859222e-02</internalNodes>
          <leafValues>
            -7.7806055545806885e-01 6.8723374605178833e-01</leafValues></_>
        <_>
          <internalNodes>
            0 -1 7 3.0382482334971428e-02</internalNodes>
          <leafValues>
            -6.7501747608184814e-01 6.1095440387725830e-01</leafValues></_>
        <_>
          <internalNodes>
            0 -1 25 2.3264661431312561e-02</internalNodes>
          <leafValues>
            4.3107759952545166e-01 -7.3824274539947510e-01</leafValues></_>
        <_>
          <internalNodes>
            0 -1 3 1.7083501443266869e-02</internalNodes>
          <leafValues>
            5.3785401582717896e-01 -6.6822159290313721e-01</leafValues></_>
        <_>
          <internalNodes>
            0 -1 56 2.8014175593852997e-02</internalNodes>
          <leafValues>
            -5.9639620780944824e-01 4.8776781558990479e-01</leafValues></_>
        <_>
          <internalNodes>
            0 -1 27 3.5751692950725555e-02</internalNodes>
          <leafValues>
            -6.1015409231185913e-01 6.2396508455276489e-01</leafValues></_>
        <_>
          <internalNodes>
            0 -1 43 1.7773028463125229e-02</internalNodes>
          <leafValues>
            3.6383941769599915e-01 -8.4813904762268066e-01</leafValues></_></weakClassifiers></_>
    <!-- stage 1 -->
    <_>
      <maxWeakCount>6</maxWeakCount>
      <stageThreshold>-6.9750368595123291e-01</stageThreshold>
      <weakClassifiers>
        <_>
          <internalNodes>
            0 -1 32 3.8739025592803955e-02</internalNodes>
          <leafValues>
            -8.7919461727142334e-01 5.7541900873184204e-01</leafValues></_>
        <_>
          <internalNodes>
            0 -1 1 5.8840274810791016e-02</internalNodes>
          <leafValues>
            -6.8513554334640503e-01 6.8015426397323608e-01</leafValues></_>
        <_>
          <internalNodes>
            0 -1 53 5.2068069577217102e-02</internalNodes>
          <leafValues>
            -7.6272040605545044e-01 5.6678640842437744e-01</leafValues></_>
        <_>
          <internalNodes>
            0 -1 49 8.2556223496794701e-03</internalNodes>
          <leafValues>
            -9.3695521354675293e-01 4.3981271982192993e-01</leafValues></_>
        <_>
          <internalNodes>
            0 -1 22 1.3014288619160652e-02</internalNodes>
          <leafValues>
            -7.3081153631210327e-01 5.2417987585067749e-01</leafValues></_>
        <_>
          <internalNodes>
            0 -1 58 4.5302234590053558e-02</internalNodes>
          <leafValues>
            -5.5435550212860107e-01 6.6555428504943848e-01</leafValues></_></weakClassifiers></_>
    <!-- stage 2 -->
    <_>
      <maxWeakCount>10</maxWeakCount>
      <stageThreshold>-6.5089869499206543e-01</stageThreshold>
      <weakClassifiers>
        <_>
          <internalNodes>
            0 -1 17 7.9420626163482666e-02</internalNodes>
          <leafValues>
            -7.2727274894714355e-01 7.7600002288818359e-01</leafValues></_>
        <_>
          <internalNodes>
            0 -1 35 9.5204405486583710e-02</internalNodes>
          <leafValues>
            -5.4977452754974365e-01 6.4285033941268921e-01</leafValues></_>
        <_>
          <internalNodes>
            0 -1 46 9.7970338538289070e-03</internalNodes>
          <leafValues>
            -8.4998488426208496e-01 3.6438006162643433e-01</leafValues></_>
        <_>
          <internalNodes>
            0 -1 14 3.3980946987867355e-02</internalNodes>
          <leafValues>
            -5.8412629365921021e-01 4.9702018499374390e-01</leafValues></_>
        <_>
          <internalNodes>
            0 -1 60 1.2211394496262074e-02</internalNodes>
          <leafValues>
            -8.2704728841781616e-01 4.1388377547264099e-01</leafValues></_>
        <_>
          <internalNodes>
            0 -1 8 7.8650005161762238e-03</internalNodes>
          <leafValues>
            3.8631024956703186e-01 -6.3155221939086914e-01</leafValues></_>
        <_>
          <internalNodes>
            0 -1 41 1.7321188002824783e-02</internalNodes>
          <leafValues>
            -7.2603541612625122e-01 3.6382338404655457e-01</leafValues></_>
        <_>
          <internalNodes>
            0 -1 10 1.1644258163869381e-02</internalNodes>
          <leafValues>
            -9.5651966333389282e-01 2.3864977061748505e-01</leafValues></_>
        <_>
          <internalNodes>
            0 -1 47 1.0011665523052216e-02</internalNodes>
          <leafValues>
            -8.6867225170135498e-01 3.0089345574378967e-01</leafValues></_>
        <_>
          <internalNodes>
            0 -1 48 3.0817296355962753e-02</internalNodes>
          <leafValues>
            2.3219293355941772e-01 -8.4885597229003906e-01</leafValues></_></weakClassifiers></_>
    <!-- stage 3 -->
    <_>
      <maxWeakCount>10</maxWeakCount>
      <stageThreshold>-1.0137281417846680e+00</stageThreshold>
      <weakClassifiers>
        <_>
          <internalNodes>
            0 -1 34 5.7144533842802048e-02</internalNodes>
          <leafValues>
            -8.9583331346511841e-01 5.2380955219268799e-01</leafValues></_>
        <_>
          <internalNodes>
            0 -1 4 6.0094609856605530e-02</internalNodes>
          <leafValues>
            -7.6761442422866821e-01 5.2284699678421021e-01</leafValues></_>
        <_>
          <internalNodes>
            0 -1 31 5.8689150959253311e-02</internalNodes>
          <leafValues>
            -6.6696983575820923e-01 3.5316783189773560e-01</leafValues></_>
        <_>
          <internalNodes>
            0 -1 39 3.0389563180506229e-03</internalNodes>
          <leafValues>
            5.9961962699890137e-01 -4.6799620985984802e-01</leafValues></_>
        <_>
          <internalNodes>
            0 -1 15 3.4154482185840607e-02</internalNodes>
          <leafValues>
            -6.3899511098861694e-01 4.5309147238731384e-01</leafValues></_>
        <_>
          <internalNodes>
            0 -1 28 3.4781806170940399e-02</internalNodes>
          <leafValues>
            2.2083453834056854e-01 -9.6139252185821533e-01</leafValues></_>
        <_>
          <internalNodes>
            0 -1 38 1.9104916602373123e-02</internalNodes>
          <leafValues>
            -6.9689726829528809e-01 3.0459493398666382e-01</leafValues></_>
        <_>
          <internalNodes>
            0 -1 42 8.1577152013778687e-03</internalNodes>
          <leafValues>
            4.3831050395965576e-01 -5.1929992437362671e-01</leafValues></_>
        <_>
          <internalNodes>
            0 -1 50 1.0060833767056465e-02</internalNodes>
          <leafValues>
            -1. 2.0112858712673187e-01</leafValues></_>
        <_>
          <internalNodes>
            0 -1 57 3.4463778138160706e-02</internalNodes>
          <leafValues>
            1.0419835895299911e-01 -1.</leafValues></_></weakClassifiers></_>
    <!-- stage 4 -->
    <_>
      <maxWeakCount>16</maxWeakCount>
      <stageThreshold>-9.1901212930679321e-01</stageThreshold>
      <weakClassifiers>
        <_>
          <internalNodes>
            0 -1 40 5.6086890399456024e-02</internalNodes>
          <leafValues>
            -7.7926421165466309e-01 4.1573032736778259e-01</leafValues></_>
        <_>
          <internalNodes>
            0 -1 36 2.9944332316517830e-02</internalNodes>
          <leafValues>
            -5.8425241708755493e-01 4.4838789105415344e-01</leafValues></_>
        <_>
          <internalNodes>
            0 -1 2 7.0381663739681244e-02</internalNodes>
          <leafValues>
            -3.5938373208045959e-01 5.6601566076278687e-01</leafValues></_>
        <_>
          <internalNodes>
            0 -1 19 1.2793866917490959e-02</internalNodes>
          <leafValues>
            -6.4074110984802246e-01 3.0610567331314087e-01</leafValues></_>
        <_>
          <internalNodes>
            0 -1 0 4.9329958856105804e-02</internalNodes>
          <leafValues>
            1.5853539109230042e-01 -1.</leafValues></_>
        <_>
          <internalNodes>
            0 -1 20 1.5477059409022331e-02</internalNodes>
          <leafValues>
            2.5390937924385071e-01 -5.8055174350738525e-01</leafValues></_>
        <_>
          <internalNodes>
            0 -1 34 7.7872812747955322e-02</internalNodes>
          <leafValues>
            -4.3336570262908936e-01 3.3797374367713928e-01</leafValues></_>
        <_>
          <internalNodes>
            0 -1 45 1.2934979051351547e-02</internalNodes>
          <leafValues>
            -8.5011351108551025e-01 1.9482323527336121e-01</leafValues></_>
        <_>
          <internalNodes>
            0 -1 12 7.3598641902208328e-03</internalNodes>
          <leafValues>
            -8.0076307058334351e-01 1.4214284718036652e-01</leafValues></_>
        <_>
          <internalNodes>
            0 -1 33 1.1451799422502518e-02</internalNodes>
          <leafValues>
            2.0700369775295258e-01 -7.0021361112594604e-01</leafValues></_>
        <_>
          <internalNodes>
            0 -1 11 3.8923703134059906e-02</internalNodes>
          <leafValues>
            1.9598087668418884e-01 -8.3490860462188721e-01</leafValues></_>
        <_>
          <internalNodes>
            0 -1 9 4.2955465614795685e-03</internalNodes>
          <leafValues>
            4.7323876619338989e-01 -3.1995809078216553e-01</leafValues></_>
        <_>
          <internalNodes>
            0 -1 18 2.3009113967418671e-02</internalNodes>
          <leafValues>
            -4.4175192713737488e-01 3.1039020419120789e-01</leafValues></_>
        <_>
          <internalNodes>
            0 -1 30 2.2961776703596115e-02</internalNodes>
          <leafValues>
            -4.9311909079551697e-01 3.4125202894210815e-01</leafValues></_>
        <_>
          <internalNodes>
            0 -1 24 3.7608701735734940e-02</internalNodes>
          <leafValues>
            1.6629613935947418e-01 -9.6744686365127563e-01</leafValues></_>
        <_>
          <internalNodes>
            0 -1 55 2.4600993841886520e-02</internalNodes>
          <leafValues>
            2.5102147459983826e-01 -5.2365535497665405e-01</leafValues></_></weakClassifiers></_>
    <!-- stage 5 -->
    <_>
      <maxWeakCount>13</maxWeakCount>
      <stageThreshold>2.3339271545410156e-01</stageThreshold>
      <weakClassifiers>
        <_>
          <internalNodes>
            0 -1 23 5.1755141466856003e-02</internalNodes>
          <leafValues>
            -3.2558140158653259e-01 8.4397161006927490e-01</leafValues></_>
        <_>
          <internalNodes>
            0 -1 51 3.4834034740924835e-03</internalNodes>
          <leafValues>
            -8.5756969451904297e-01 4.2924168705940247e-01</leafValues></_>
        <_>
          <internalNodes>
            0 -1 59 5.2906773984432220e-02</internalNodes>
          <leafValues>
            -5.1951247453689575e-01 4.8357191681861877e-01</leafValues></_>
        <_>
          <internalNodes>
            0 -1 16 7.2856068611145020e-02</internalNodes>
          <leafValues>
            2.7354380488395691e-01 -8.9676147699356079e-01</leafValues></_>
        <_>
          <internalNodes>
            0 -1 26 3.6208389792591333e-03</internalNodes>
          <leafValues>
            5.9123092889785767e-01 -3.6607778072357178e-01</leafValues></_>
        <_>
          <internalNodes>
            0 -1 5 1.3132462278008461e-02</internalNodes>
          <leafValues>
            -9.4582939147949219e-01 2.1371704339981079e-01</leafValues></_>
        <_>
          <internalNodes>
            0 -1 53 1.2590083479881287e-01</internalNodes>
          <leafValues>
            -3.1250867247581482e-01 6.3738799095153809e-01</leafValues></_>
        <_>
          <internalNodes>
            0 -1 29 3.6921203136444092e-03</internalNodes>
          <leafValues>
            -5.3921741247177124e-01 3.6939603090286255e-01</leafValues></_>
        <_>
          <internalNodes>
            0 -1 54 2.5485776364803314e-02</internalNodes>
          <leafValues>
            -5.7383382320404053e-01 3.0011501908302307e-01</leafValues></_>
        <_>
          <internalNodes>
            0 -1 44 1.1347463354468346e-02</internalNodes>
          <leafValues>
            -8.6680984497070313e-01 2.1585726737976074e-01</leafValues></_>
        <_>
          <internalNodes>
            0 -1 13 3.1284347176551819e-02</internalNodes>
          <leafValues>
            -4.2310547828674316e-01 4.6693572402000427e-01</leafValues></_>
        <_>
          <internalNodes>
            0 -1 37 1.0795984417200089e-02</internalNodes>
          <leafValues>
            -6.6350311040878296e-01 3.0398786067962646e-01</leafValues></_>
        <_>
          <internalNodes>
            0 -1 52 1.8728740513324738e-02</internalNodes>
          <leafValues>
            3.1097006797790527e-01 -6.8295097351074219e-01</leafValues></_></weakClassifiers></_></stages>
  <features>
    <_>
      <rect>
        0 0 8 8 1</rect></_>
    <_>
      <rect>
        0 0 8 8 10</rect></_>
    <_>
      <rect>
        0 0 8 8 19</rect></_>
    <_>
      <rect>
        0 4 8 8 4</rect></_>
    <_>
      <rect>
        0 4 8 8 10</rect></_>
    <_>
      <rect>
        0 4 8 8 26</rect></_>
    <_>
      <rect>
        0 4 8 8 27</rect></_>
    <_>
      <rect>
        0 8 8 8 1</rect></_>
    <_>
      <rect>
        0 8 8 8 4</rect></_>
    <_>
      <rect>
        0 8 8 8 22</rect></_>
    <_>
      <rect>
        0 16 8 8 8</rect></_>
    <_>
      <rect>
        0 16 8 8 24</rect></_>
    <_>
      <rect>
        4 0 8 8 31</rect></_>
    <_>
      <rect>
        4 0 8 8 32</rect></_>
    <_>
      <rect>
        4 0 8 8 34</rect></_>
    <_>
      <rect>
        4 0 8 8 35</rect></_>
    <_>
      <rect>
        4 12 8 8 8</rect></_>
    <_>
      <rect>
        4 16 8 8 9</rect></_>
    <_>
      <rect>
        4 16 8 8 14</rect></_>
    <_>
      <rect>
        8 16 8 8 21</rect></_>
    <_>
      <rect>
        8 16 8 8 27</rect></_>
    <_>
      <rect>
        12 0 8 8 33</rect></_>
    <_>
      <rect>
        12 4 8 8 3</rect></_>
    <_>
      <rect>
        12 4 8 8 18</rect></_>
    <_>
      <rect>
        12 4 8 8 27</rect></_>
    <_>
      <rect>
        12 16 8 8 13</rect></_>
    <_>
      <rect>
        12 16 8 8 14</rect></_>
    <_>
      <rect>
        16 0 8 8 6</rect></_>
    <_>
      <rect>
        16 0 8 8 8</rect></_>
    <_>
      <rect>
        16 0 8 8 12</rect></_>
    <_>
      <rect>
        16 0 8 8 18</rect></_>
    <_>
      <rect>
        16 0 8 8 24</rect></_>
    <_>
      <rect>
        16 0 8 8 25</rect></_>
    <_>
      <rect>
        16 0 8 8 30</rect></_>
    <_>
      <rect>
        16 0 8 8 33</rect></_>
    <_>
      <rect>
        16 4 8 8 6</rect></_>
    <_>
      <rect>
        16 8 8 8 25</rect></_>
    <_>
      <rect>
        16 8 8 8 27</rect></_>
    <_>
      <rect>
        16 12 8 8 1</rect></_>
    <_>
      <rect>
        16 12 8 8 33</rect></_>
    <_>
      <rect>
        16 16 8 8 0</rect></_>
    <_>
      <rect>
        16 16 8 8 2</rect></_>
    <_>
      <rect>
        16 16 8 8 13</rect></_>
    <_>
      <rect>
        16 16 8 8 14</rect></_>
    <_>
      <rect>
        0 0 8 16 1</rect></_>
    <_>
      <rect>
        4 0 8 16 1</rect></_>
    <_>
      <rect>
        12 0 8 16 21</rect></_>
    <_>
      <rect>
        12 0 8 16 23</rect></_>
    <_>
      <rect>
        12 0 8 16 27</rect></_>
    <_>
      <rect>
        12 0 8 16 30</rect></_>
    <_>
      <rect>
        16 0 8 16 15</rect></_>
    <_>
      <rect>
        16 0 8 16 30</rect></_>
    <_>
      <rect>
        16 0 8 16 33</rect></_>
    <_>
      <rect>
        0 0 16 8 33</rect></_>
    <_>
      <rect>
        0 0 16 8 35</rect></_>
    <_>
      <rect>
        0 4 16 8 0</rect></_>
    <_>
      <rect>
        0 4 16 8 28</rect></_>
    <_>
      <rect>
        0 8 16 8 3</rect></_>
    <_>
      <rect>
        0 12 16 8 17</rect></_>
    <_>
      <rect>
        0 16 16 8 8</rect></_>
    <_>
      <rect>
        0 0 16 16 2</rect></_></features></cascade>
</opencv_storage>
